-0.112874 -0.16269 -0.0545072 -0.316224 -0.560354 -0.125498 0.439923 -0.00294583 0.750085 0.263943 0.212551 -0.375395 0.0505177 0.457714 -0.179829 0.547314 -0.258004 0.253524 0.357808 -0.400712 -0.130227 0.0181777 -0.136627 -0.159515 0.983018 0.447962 0.143282 0.640209 -0.00247788 -0.0846627 -0.651262 -0.0477665 0.362032 0.470135 0.200757 0.678204 0.255501 -0.13769 -0.116326 -0.255842 -0.288522 -0.1508 -0.668695 -0.361652 -0.483417 -0.218472 -0.195255 0.385648 0.458819 -0.188493 0.407017 0.290239 0.031839 0.0236883 -0.0590328 -0.195648 -0.269932 0.282485 0.419192 -0.583601 0.536376 -0.175557 -0.159345 -0.538632 -0.565689 0.613042 0.39584 -0.390004 -0.0975648 0.283509 0.3971 -0.64197 0.454702 0.0110418 0.580555 -0.260096 -0.348625 -0.259769 0.348813 -0.309393 0.13183 0.568861 -0.545794 -0.390898 -0.134576 0.101475 -0.292287 0.70349 0.351757 -0.153121 -0.430032 0.286606 0.446595 -0.246662 0.426151 -0.307386 0.475576 -0.296402 -0.702103 -0.237681 0.0383385 -0.0663731 0.453459 -0.915618 0.0749473 0.327911 -0.103463 0.28758 0.564531 0.315899 0.518409 -0.412702 -0.0541168 -0.0968046 -0.713988 0.250245 -0.117785 0.113606 0.326812 0.828908 -0.0739705 -0.377299 0.148302 0.0685137 -0.258935 -0.0715641 -0.227853 0.153552 -0.0246825 0.294923 0.490974 0.703064 -0.165597 -0.237789 -0.371091 -0.115642 0.58452 0.343707 -0.166975 0.180362 0.156983 0.772961 -0.231748 0.048755 0.299857 0.0292829 -0.177115 -0.280778 -0.143423 -0.244039 0.136366 0.540146 -0.0264231 0.0756726 0.0072028 -0.0624565 0.19515 -0.338778 0.651707 -0.0367102 -0.281393 0.187154 0.0391591 0.00820238 0.0134871 -0.35239 -0.394133 0.931983 -0.454612 0.020392 0.108365 -0.523877 -0.637679 0.0681085 0.0154138 -0.334706 -0.184689 0.146853 -0.0807541 -0.0125891 0.345839 -0.0550544 -0.0171665 -0.237755 -0.294022 -0.175477 -0.539386 -0.0717275 -0.540227 -0.715754 0.216365 -0.462501 0.155691 0.106646 -0.289212 -0.536986 0.69136 0.137914 0.546999 -0.309396 -0.0434642 0.351045 -0.522072 -0.107238 0.687739 0.0375643 -0.384212 0.272679 -0.452791 -0.644256 0.180599 0.260297 0.261281 0.343288 -0.26403 0.166528 0.133622 0.275429 0.496645 0.100309 -0.232056 -0.0211342 -0.765052 -0.219748 -0.230991 -0.147804 0.111245 -0.30927 0.331266 -0.155149 -0.656046 0.326704 0.313422 0.113709 0.107927 0.0472993 -0.140624 -0.0985571 0.596899 -0.165515 -0.191714 -0.00505105 -0.171844 -0.13224 0.237354 0.417067 -0.0656854 0.359426 -0.0900149 0.0495151 -0.0378113 0.411708 0.483509 -0.570464 -0.206262 -0.00812207 -0.217996 -0.0439901 -0.354846 -0.128065 -0.553976 0.309741 -0.406007 0.127416 0.596968 -0.191094 0.0453329 -0.508761 0.281093 0.246198 -0.477011 0.614159 -0.293912 -0.12681 0.310551 -0.380087 -0.077538 0.195112 0.517445 0.433464 0.112729 0.177978 0.421102 -0.339196 -0.0672983 0.623155 0.0991996 0.168392 0.23227 0.217505 -0.304743 0.0654115 -0.110435 -0.429104 -0.205309 -0.0588735 0.258122 0.742201 0.535427 0.28108 0.552782 -0.440047 0.408146 -0.53689 -0.335481 0.361252 -0.0100304 0.569867 -0.473646 -0.17557 -0.293124 0.272276 0.194896 0.34269 -0.258361 0.175182 -0.279311 0.316173 0.706466 0.59964 0.34977 0.657431 -0.529465 0.00720282 0.0934497 -0.250531 0.767454 0.542787 -0.365448 -0.453823 -0.317803 -0.0742266 -0.285309 -0.548409 -0.0758585 -0.155059 0.739348 0.139212 0.643295 0.761439 0.359396 -0.348258 0.261371 -0.0231913 -0.139729 0.402028 0.305944 -0.50845 0.643022 0.228321 -0.0629224 -0.326702 -0.378813 -0.292924 0.0146931 0.487404 -0.0839415 -0.200382 -0.131143 0.173436 -0.0204209 -0.162284 -0.32486 0.150818 -0.240717 -0.00739486 -0.373438 0.38166 -0.750226 0.0942476 0.245256 0.285397 -0.17792 -0.0437385 0.620236 0.241802 -0.276561 0.276068 0.00234027 0.642443 -0.398073 -0.0381799 -0.505155 -0.044162 0.26739 0.0546308 -0.461057 0.528804 -0.808805 0.16017 -0.259893 0.581112 -0.761682 0.207037 0.361483 0.759148 0.12935 -0.40229 0.672895 -0.430854 0.313857 -0.250475 -0.137248 -0.639934 -0.380129 -0.210669 0.818488 0.0785051 0.383751 -0.683826 -0.121798 -0.0665259 0.0300578 -0.0782865 -0.49895 -0.17906 -0.0652031 -0.293836 -0.0597338 -0.400352 0.0100023 0.418316 0.414752 0.539281 0.0305852 -0.159868 -0.268168 0.20751 0.40253 0.418328 -0.202197 -0.0170559 -0.104507 -0.517827 -0.316706 0.700344 0.0496663 0.151545 0.277818 -0.230861 0.108926 -0.349164 0.486846 -0.00379429 -0.00942935 0.129616 0.393804 0.523675 0.186417 0.351459 -0.496495 -0.749455 -0.012327 -0.501903 0.360498 0.164317 -0.3943 0.463841 -0.106288 -0.026976 0.0705906 -0.585773 -0.000940161 0.00234541 -0.514836 -0.267147 -0.365128 0.439053 0.70794 -0.652949 0.0618736 -0.214681 -0.444019 0.000837134 -0.199353 -0.418806 0.0648716 0.432091 -0.567848 -0.583934 -0.241348 -0.29423 0.221989 0.295817 -0.492123 -0.0947382 0.0586492 0.424923 -0.421705 0.161809 -0.132957 -0.161182 -0.337203 0.193408 0.253154 0.234555 0.57897 -0.0744542 -0.755579 -0.299407 0.0977406 -0.0904267 -0.42921 -0.550011 0.595262 -0.255792 0.630581 -0.478419 -0.187662 -0.172635 -0.476804 0.180232 0.319659 -0.181964 -0.192355 -0.462161 -0.469635 -0.163719 0.407591 -0.228773 -0.0258191 -0.124745 -0.226306 0.15149 -0.20557 -0.0374354 -0.601796 0.0815104 -0.0517327 -0.396804 -0.579323 -0.0635654 0.273674 -0.553109 -0.544765 -0.670502 -0.552199 0.644474 -0.408089 -0.473683 0.313617 -0.31533 0.616922 -0.291497 -0.58708 0.331823 0.366454 0.711988 -0.168663 0.286499 0.0586147 -0.39604 -0.089595 -0.149304 0.578607 -0.235445 -0.535734 -0.37352 -0.156698 -0.00994035 0.637988 -0.465912 0.842399 -0.184961 -0.150546 0.518434 0.344112 -0.148062 -0.679748 -0.00651612 -0.518161 -0.597191 0.59808 0.460122 -0.554076 0.738101 0.501943 0.472435 0.502205 -0.195838 0.257143 0.0747423 0.105835 0.0121274 0.417775 -0.0356999 -0.107706 0.490229 -0.342435 -0.370632 0.0515539 0.502266 -0.25861 -0.270858 0.331448 0.040921 0.705568 0.121591 0.182125 -0.308587 0.471634 -0.0178374 0.180264 0.0108304 -0.475781 -0.325431 -0.251905 0.287794 -0.236785 -0.373851 -0.164243 -0.606383 0.274736 0.451525 0.319668 0.503228 -0.140945 0.422261 -0.0419892 -0.222447 0.135548 0.0978464 -0.368703 -0.297659 -0.528223 0.561397 0.177857 0.356702 -0.133705 0.0490708 0.110675 0.535769 0.933598 0.206399 0.410109 -0.160551 -0.626349 0.481719 0.0561035 0.294401 -0.308093 0.380019 0.0670838 0.318967 0.140669 0.124581 -0.368092 -0.330178 0.133377 -0.428014 -0.22765 -0.41621 0.481551 0.590735 -0.17281 0.61467 0.274819 0.177659 0.470244 -0.206853 -0.137237 0.418512 0.0165864 0.0353153 0.537164 -0.543683 -0.348986 0.447852 -0.105843 0.183678 -0.417762 0.351455 0.297401 -0.379683 -0.0485335 -0.317746 0.0566452 -0.128013 0.499624 0.243082 -0.28364 -0.56786 -0.472475 -0.248907 0.304065 -0.116265 0.225886 0.5043 0.0262113 0.0480338 -0.253929 -0.208561 0.120885 0.0598386 0.308649 0.361765 -0.0802982 -0.222452 -0.155301 -0.113761 0.508147 -0.23919 -0.026172 -0.0671113 0.048397 0.185204 0.22579 -0.126781 -0.172862 -0.0106328 0.209774 -0.520037 -0.0422215 -0.176695 -0.218016 0.38088 0.391351 0.657402 -0.128209 -0.344008 0.305297 -0.125327 0.586866 0.478629 -0.308537 -0.618193 -0.415377 0.310688 -0.479471 -0.365707 0.437245 0.538588 0.0356738 -0.111771 -0.428953 0.188237 -0.391096 0.240036 -0.288344 -0.285301 0.0948426 -0.569186 -0.372521 0.335309 0.35416 -0.480106 -0.507817 -0.271165 -0.279849 0.0255539 -0.178541 0.0264126 -0.0623347 0.510214 -0.112498 -0.525281 0.344316 0.178148 0.512324 -0.100884 0.385156 -0.72239 -0.313645 -0.326809 -0.170115 0.454149 0.448102 0.558815 0.53312 0.0234251 0.00704511 -0.0103357 -0.199476 0.00491915 0.518521 -0.0921222 0.362556 0.0435743 -0.361759 0.0364794 0.116272 0.0739915 -0.018702 0.428262 0.0680356 0.110701 0.0458163 0.623427 0.0270863 0.637291 -0.0856685 0.133854 -0.228633 -0.345597 -0.331496 -0.283863 0.331926 0.490106 -0.480659 0.0262189 -0.284663 -0.398334 -0.10925 0.529588 0.398755 -0.0379292 -0.551576 -0.0675974 -0.323892 0.134604 0.444844 0.37767 0.452468 -0.0896092 0.00287943 0.449403 -0.74955 -0.533214 -0.315512 0.0815704 0.259309 -0.0475676 -0.522428 0.642677 0.542663 -0.436193 -0.0500613 -0.650489 0.0844542 -0.37291 0.556006 0.0391591 0.0169616 0.274303 -0.452696 0.597782 0.157243 -0.0433123 -0.0598208 0.278297 0.612435 -0.168033 0.206284 0.184234 0.370816 0.411274 -0.0243017 0.208433 -0.125522 -0.593141 -0.0467648 -0.173567 -0.148745 0.224166 -0.73405 -0.559281 -0.205344 -0.5054 -0.17612 -0.542863 -0.0557088 0.108729 -0.0308343 -0.365635 0.232469 -0.172852 -0.681369 0.143555 0.52489 0.560826 -0.512586 -0.232845 0.508642 0.522115 -0.519664 0.0582116 -0.270062 0.427679 0.00127266 0.690051 0.11117 -0.169627 0.114267 0.164292 0.0883706 0.220015 -0.0196762 -0.713568 0.386306 0.349913 0.0721739 0.238197 -0.161741 0.0702604 -0.13058 -0.474313 -0.751369 0.230444 0.0960913 0.868381 -0.111457 -0.419317 0.272852 0.235456 0.0308119 0.469671 0.187475 -0.530682 -0.405968 0.328446 0.0767123 -0.78484 0.192745 -0.263631 -0.236231 -0.413445 0.278057 0.175114 0.198689 -0.0578234 0.272801 -0.492282 -0.424402 -0.376494 -0.216592 0.288533 0.132379 -0.308929 0.314676 -0.694048 0.180063 0.650015 0.289883 -0.266747 -0.590738 0.219095 0.230982 -0.22098 -0.162813 -0.234939 -0.19406 0.0338647 -0.173845 0.0619219 0.831466 -0.186416 -0.344474 -0.517487 0.248565 0.619553 -0.194621 0.452005 0.458221 0.220656 -0.610015 0.665001 -0.118004 -0.0563388 -0.585683 0.441298 -0.345203 -0.683461 0.00362123 -0.594065 0.018433 0.704379 -0.521383 -0.128615 0.272322 -0.402096 0.818398 -0.809235 -0.27407 0.0309577 0.0412223 -0.297848 0.356777 0.127762 -0.346129 -0.123824 0.402439 -0.0707977 0.0062051 0.123243 0.0740941 -0.672577 0.657918 0.180798 -1.02297 0.58879 -0.16246 0.297178 0.380971 -0.230185 -0.209718 -0.545223 -0.592939 0.238061 0.32096 -0.455048 